<?xml version="1.0"?>
<opencv_storage>
<cascade>
  <stageType>BOOST</stageType>
  <featureType>HAAR</featureType>
  <height>24</height>
  <width>24</width>
  <stageParams>
    <boostType>GAB</boostType>
    <minHitRate>9.9500000476837158e-01</minHitRate>
    <maxFalseAlarm>5.0000000000000000e-01</maxFalseAlarm>
    <weightTrimRate>9.4999998807907104e-01</weightTrimRate>
    <maxDepth>1</maxDepth>
    <maxWeakCount>100</maxWeakCount></stageParams>
  <featureParams>
    <maxCatCount>0</maxCatCount>
    <featSize>1</featSize>
    <mode>BASIC</mode></featureParams>
  <stageNum>3</stageNum>
  <stages>
    <!-- stage 0 -->
    <_>
      <maxWeakCount>1</maxWeakCount>
      <stageThreshold>1.</stageThreshold>
      <weakClassifiers>
        <_>
          <internalNodes>
            0 -1 4 2.0074971020221710e-02</internalNodes>
          <leafValues>
            -1. 1.</leafValues></_></weakClassifiers></_>
    <!-- stage 1 -->
    <_>
      <maxWeakCount>2</maxWeakCount>
      <stageThreshold>-3.1399396061897278e-01</stageThreshold>
      <weakClassifiers>
        <_>
          <internalNodes>
            0 -1 3 4.4641458988189697e-01</internalNodes>
          <leafValues>
            -9.9004977941513062e-01 1.</leafValues></_>
        <_>
          <internalNodes>
            0 -1 2 2.6485027745366096e-02</internalNodes>
          <leafValues>
            -1. 6.7605578899383545e-01</leafValues></_></weakClassifiers></_>
    <!-- stage 2 -->
    <_>
      <maxWeakCount>3</maxWeakCount>
      <stageThreshold>-1.3675221204757690e+00</stageThreshold>
      <weakClassifiers>
        <_>
          <internalNodes>
            0 -1 1 1.3423967361450195e-01</internalNodes>
          <leafValues>
            -9.8807156085968018e-01 1.</leafValues></_>
        <_>
          <internalNodes>
            0 -1 0 -3.9660844951868057e-02</internalNodes>
          <leafValues>
            5.6591862440109253e-01 -9.7132492065429688e-01</leafValues></_>
        <_>
          <internalNodes>
            0 -1 5 -3.5252064466476440e-02</internalNodes>
          <leafValues>
            8.3333981037139893e-01 -9.4536924362182617e-01</leafValues></_></weakClassifiers></_></stages>
  <features>
    <_>
      <rects>
        <_>
          0 10 21 1 -1.</_>
        <_>
          7 10 7 1 3.</_></rects>
      <tilted>0</tilted></_>
    <_>
      <rects>
        <_>
          1 0 6 20 -1.</_>
        <_>
          4 0 3 20 2.</_></rects>
      <tilted>0</tilted></_>
    <_>
      <rects>
        <_>
          1 16 18 2 -1.</_>
        <_>
          1 17 18 1 2.</_></rects>
      <tilted>0</tilted></_>
    <_>
      <rects>
        <_>
          2 5 21 16 -1.</_>
        <_>
          9 5 7 16 3.</_></rects>
      <tilted>0</tilted></_>
    <_>
      <rects>
        <_>
          2 22 19 2 -1.</_>
        <_>
          2 23 19 1 2.</_></rects>
      <tilted>0</tilted></_>
    <_>
      <rects>
        <_>
          21 1 3 20 -1.</_>
        <_>
          22 1 1 20 3.</_></rects>
      <tilted>0</tilted></_></features></cascade>
</opencv_storage>
