<?xml version="1.0"?>
<opencv_storage>
<cascade>
  <stageType>BOOST</stageType>
  <featureType>HAAR</featureType>
  <height>24</height>
  <width>24</width>
  <stageParams>
    <boostType>GAB</boostType>
    <minHitRate>9.9500000476837158e-01</minHitRate>
    <maxFalseAlarm>5.0000000000000000e-01</maxFalseAlarm>
    <weightTrimRate>9.4999998807907104e-01</weightTrimRate>
    <maxDepth>1</maxDepth>
    <maxWeakCount>100</maxWeakCount></stageParams>
  <featureParams>
    <maxCatCount>0</maxCatCount>
    <featSize>1</featSize>
    <mode>BASIC</mode></featureParams>
  <stageNum>4</stageNum>
  <stages>
    <!-- stage 0 -->
    <_>
      <maxWeakCount>2</maxWeakCount>
      <stageThreshold>-4.1747143864631653e-01</stageThreshold>
      <weakClassifiers>
        <_>
          <internalNodes>
            0 -1 2 7.6638862490653992e-02</internalNodes>
          <leafValues>
            -9.9202394485473633e-01 7.1428573131561279e-01</leafValues></_>
        <_>
          <internalNodes>
            0 -1 3 -2.2734088823199272e-02</internalNodes>
          <leafValues>
            5.7455247640609741e-01 -1.</leafValues></_></weakClassifiers></_>
    <!-- stage 1 -->
    <_>
      <maxWeakCount>3</maxWeakCount>
      <stageThreshold>-1.4066861867904663e+00</stageThreshold>
      <weakClassifiers>
        <_>
          <internalNodes>
            0 -1 5 -4.6987824141979218e-02</internalNodes>
          <leafValues>
            1. -9.8807156085968018e-01</leafValues></_>
        <_>
          <internalNodes>
            0 -1 8 -2.6586774736642838e-02</internalNodes>
          <leafValues>
            5.3265380859375000e-01 -9.8551547527313232e-01</leafValues></_>
        <_>
          <internalNodes>
            0 -1 1 6.0517732053995132e-02</internalNodes>
          <leafValues>
            -9.5126849412918091e-01 8.8681113719940186e-01</leafValues></_></weakClassifiers></_>
    <!-- stage 2 -->
    <_>
      <maxWeakCount>2</maxWeakCount>
      <stageThreshold>-1.0066837072372437e+00</stageThreshold>
      <weakClassifiers>
        <_>
          <internalNodes>
            0 -1 7 1.0989088565111160e-02</internalNodes>
          <leafValues>
            -9.8608350753784180e-01 5.0000000000000000e-01</leafValues></_>
        <_>
          <internalNodes>
            0 -1 6 -3.5913195461034775e-03</internalNodes>
          <leafValues>
            -2.0600240677595139e-02 -9.8979407548904419e-01</leafValues></_></weakClassifiers></_>
    <!-- stage 3 -->
    <_>
      <maxWeakCount>3</maxWeakCount>
      <stageThreshold>-1.1543781757354736e+00</stageThreshold>
      <weakClassifiers>
        <_>
          <internalNodes>
            0 -1 4 -1.8507993221282959e-01</internalNodes>
          <leafValues>
            1. -9.8807156085968018e-01</leafValues></_>
        <_>
          <internalNodes>
            0 -1 9 -2.3965468630194664e-02</internalNodes>
          <leafValues>
            9.1167867183685303e-01 -9.5758640766143799e-01</leafValues></_>
        <_>
          <internalNodes>
            0 -1 0 -2.4828704074025154e-02</internalNodes>
          <leafValues>
            7.9127979278564453e-01 -9.1852104663848877e-01</leafValues></_></weakClassifiers></_></stages>
  <features>
    <_>
      <rects>
        <_>
          0 14 3 6 -1.</_>
        <_>
          1 14 1 6 3.</_></rects>
      <tilted>0</tilted></_>
    <_>
      <rects>
        <_>
          1 1 6 12 -1.</_>
        <_>
          4 1 3 12 2.</_></rects>
      <tilted>0</tilted></_>
    <_>
      <rects>
        <_>
          1 15 21 2 -1.</_>
        <_>
          8 15 7 2 3.</_></rects>
      <tilted>0</tilted></_>
    <_>
      <rects>
        <_>
          1 21 18 3 -1.</_>
        <_>
          1 22 18 1 3.</_></rects>
      <tilted>0</tilted></_>
    <_>
      <rects>
        <_>
          3 12 14 9 -1.</_>
        <_>
          3 15 14 3 3.</_></rects>
      <tilted>0</tilted></_>
    <_>
      <rects>
        <_>
          9 13 3 6 -1.</_>
        <_>
          9 15 3 2 3.</_></rects>
      <tilted>0</tilted></_>
    <_>
      <rects>
        <_>
          17 0 6 2 -1.</_>
        <_>
          17 0 3 1 2.</_>
        <_>
          20 1 3 1 2.</_></rects>
      <tilted>0</tilted></_>
    <_>
      <rects>
        <_>
          20 12 2 4 -1.</_>
        <_>
          20 12 1 2 2.</_>
        <_>
          21 14 1 2 2.</_></rects>
      <tilted>0</tilted></_>
    <_>
      <rects>
        <_>
          21 4 3 15 -1.</_>
        <_>
          22 4 1 15 3.</_></rects>
      <tilted>0</tilted></_>
    <_>
      <rects>
        <_>
          21 11 1 9 -1.</_>
        <_>
          21 14 1 3 3.</_></rects>
      <tilted>0</tilted></_></features></cascade>
</opencv_storage>
